# Shape: 28x28, Channels: 6
# Format: Each line is one pixel location. Columns are Channels 0 to 5
779 3824 -855 3875 4320 -2740
582 4562 -543 5305 6506 -2656
-360 5713 697 6594 7819 -1582
-331 5637 748 6740 8080 -1531
-237 5542 770 6853 8259 -1661
-208 5466 821 6999 8520 -1610
-114 5371 843 7112 8699 -1740
-85 5295 894 7258 8960 -1689
9 5200 916 7371 9139 -1819
38 5124 967 7517 9400 -1768
132 5029 989 7630 9579 -1898
161 4953 1040 7776 9840 -1847
255 4858 1062 7889 10019 -1977
284 4782 1113 8035 10280 -1926
378 4687 1135 8148 10459 -2056
407 4611 1186 8294 10720 -2005
501 4516 1208 8407 10899 -2135
530 4440 1259 8553 11160 -2084
624 4345 1281 8666 11339 -2214
653 4269 1332 8812 11600 -2163
747 4174 1354 8925 11779 -2293
776 4098 1405 9071 12040 -2242
870 4003 1427 9184 12219 -2372
899 3927 1478 9330 12480 -2321
993 3832 1500 9443 12659 -2451
1022 3756 1551 9589 12920 -2400
-732 5873 3197 9968 9935 -2502
-3574 7705 4370 8871 7550 1020
3809 563 -1598 4647 8113 -5572
3485 1399 -673 7418 11728 -5357
1423 3247 1848 10122 13875 -2798
1461 3091 1920 10233 14111 -2739
1583 2937 1977 10333 14242 -2882
1621 2781 2049 10444 14478 -2823
1743 2627 2106 10544 14609 -2966
1781 2471 2178 10655 14845 -2907
1903 2317 2235 10755 14976 -3050
1941 2161 2307 10866 15212 -2991
2063 2007 2364 10966 15343 -3134
2101 1851 2436 11077 15579 -3075
2223 1697 2493 11177 15710 -3218
2261 1541 2565 11288 15946 -3159
2383 1387 2622 11388 16077 -3302
2421 1231 2694 11499 16313 -3243
2543 1077 2751 11599 16444 -3386
2581 921 2823 11710 16680 -3327
2703 767 2880 11810 16811 -3470
2741 611 2952 11921 17047 -3411
2863 457 3009 12021 17178 -3554
2901 301 3081 12132 17414 -3495
3023 147 3138 12232 17545 -3638
3061 -9 3210 12343 17781 -3579
3183 -163 3267 12443 17912 -3722
3221 -319 3339 12554 18148 -3663
571 2761 5048 13172 13505 -3092
-4063 5772 5920 12209 10308 2798
7408 -3064 -1445 4431 11065 -9242
7014 -3059 21 8762 15684 -8726
3767 -957 3760 13024 18869 -4047
3815 -1109 3865 13151 19074 -3977
3956 -1233 3950 13241 19137 -4128
4004 -1385 4055 13368 19342 -4058
4145 -1509 4140 13458 19405 -4209
4193 -1661 4245 13585 19610 -4139
4334 -1785 4330 13675 19673 -4290
4382 -1937 4435 13802 19878 -4220
4523 -2061 4520 13892 19941 -4371
4571 -2213 4625 14019 20146 -4301
4712 -2337 4710 14109 20209 -4452
4760 -2489 4815 14236 20414 -4382
4901 -2613 4900 14326 20477 -4533
4949 -2765 5005 14453 20682 -4463
5090 -2889 5090 14543 20745 -4614
5138 -3041 5195 14670 20950 -4544
5279 -3165 5280 14760 21013 -4695
5327 -3317 5385 14887 21218 -4625
5468 -3441 5470 14977 21281 -4776
5516 -3593 5575 15104 21486 -4706
5657 -3717 5660 15194 21549 -4857
5705 -3869 5765 15321 21754 -4787
5846 -3993 5850 15411 21817 -4938
5894 -4145 5955 15538 22022 -4868
1905 -251 7230 16580 15631 -3381
-4920 3489 7722 16290 12104 5239
11706 -5500 -731 3857 12913 -13540
11116 -6489 1547 10092 18120 -12436
6413 -4821 6420 16062 22621 -5181
6461 -4973 6525 16189 22826 -5111
6602 -5097 6610 16279 22889 -5262
6650 -5249 6715 16406 23094 -5192
6791 -5373 6800 16496 23157 -5343
6839 -5525 6905 16623 23362 -5273
6980 -5649 6990 16713 23425 -5424
7028 -5801 7095 16840 23630 -5354
7169 -5925 7180 16930 23693 -5505
7217 -6077 7285 17057 23898 -5435
7358 -6201 7370 17147 23961 -5586
7406 -6353 7475 17274 24166 -5516
7547 -6477 7560 17364 24229 -5667
7595 -6629 7665 17491 24434 -5597
7736 -6753 7750 17581 24497 -5748
7784 -6905 7855 17708 24702 -5678
7925 -7029 7940 17798 24765 -5829
7973 -7181 8045 17925 24970 -5759
8114 -7305 8130 18015 25033 -5910
8162 -7457 8235 18142 25238 -5840
8303 -7581 8320 18232 25301 -5991
8351 -7733 8425 18359 25506 -5921
8492 -7857 8510 18449 25569 -6072
8540 -8009 8615 18576 25774 -6002
3193 -3331 9428 20052 17703 -3591
-5802 1151 9542 20406 13882 7731
16004 -7936 -17 3283 14761 -17838
15218 -9919 3073 11422 20556 -16146
9059 -8685 9080 19100 26373 -6315
9107 -8837 9185 19227 26578 -6245
9248 -8961 9270 19317 26641 -6396
9296 -9113 9375 19444 26846 -6326
9437 -9237 9460 19534 26909 -6477
9485 -9389 9565 19661 27114 -6407
9626 -9513 9650 19751 27177 -6558
9674 -9665 9755 19878 27382 -6488
9815 -9789 9840 19968 27445 -6639
9863 -9941 9945 20095 27650 -6569
10004 -10065 10030 20185 27713 -6720
10052 -10217 10135 20312 27918 -6650
10193 -10341 10220 20402 27981 -6801
10241 -10493 10325 20529 28186 -6731
10382 -10617 10410 20619 28249 -6882
10430 -10769 10515 20746 28454 -6812
10571 -10893 10600 20836 28517 -6963
10619 -11045 10705 20963 28722 -6893
10760 -11169 10790 21053 28785 -7044
10808 -11321 10895 21180 28990 -6974
10949 -11445 10980 21270 29053 -7125
10997 -11597 11085 21397 29258 -7055
11138 -11721 11170 21487 29321 -7206
11186 -11873 11275 21614 29526 -7136
4481 -6411 11626 23524 19775 -3801
-6684 -1187 11362 24522 15660 10223
20302 -10372 697 2709 16609 -22136
19320 -13349 4599 12752 22992 -19856
11705 -12549 11740 22138 30125 -7449
11753 -12701 11845 22265 30330 -7379
11894 -12825 11930 22355 30393 -7530
11942 -12977 12035 22482 30598 -7460
12083 -13101 12120 22572 30661 -7611
12131 -13253 12225 22699 30866 -7541
12272 -13377 12310 22789 30929 -7692
12320 -13529 12415 22916 31134 -7622
12461 -13653 12500 23006 31197 -7773
12509 -13805 12605 23133 31402 -7703
12650 -13929 12690 23223 31465 -7854
12698 -14081 12795 23350 31670 -7784
12839 -14205 12880 23440 31733 -7935
12887 -14357 12985 23567 31938 -7865
13028 -14481 13070 23657 32001 -8016
13076 -14633 13175 23784 32206 -7946
13217 -14757 13260 23874 32269 -8097
13265 -14909 13365 24001 32474 -8027
13406 -15033 13450 24091 32537 -8178
13454 -15185 13555 24218 32742 -8108
13595 -15309 13640 24308 32805 -8259
13643 -15461 13745 24435 33010 -8189
13784 -15585 13830 24525 33073 -8340
13832 -15737 13935 24652 33278 -8270
5769 -9491 13824 26996 21847 -4011
-7566 -3525 13182 28638 17438 12715
24600 -12808 1411 2135 18457 -26434
23422 -16779 6125 14082 25428 -23566
14351 -16413 14400 25176 33877 -8583
14399 -16565 14505 25303 34082 -8513
14540 -16689 14590 25393 34145 -8664
14588 -16841 14695 25520 34350 -8594
14729 -16965 14780 25610 34413 -8745
14777 -17117 14885 25737 34618 -8675
14918 -17241 14970 25827 34681 -8826
14966 -17393 15075 25954 34886 -8756
15107 -17517 15160 26044 34949 -8907
15155 -17669 15265 26171 35154 -8837
15296 -17793 15350 26261 35217 -8988
15344 -17945 15455 26388 35422 -8918
15485 -18069 15540 26478 35485 -9069
15533 -18221 15645 26605 35690 -8999
15674 -18345 15730 26695 35753 -9150
15722 -18497 15835 26822 35958 -9080
15863 -18621 15920 26912 36021 -9231
15911 -18773 16025 27039 36226 -9161
16052 -18897 16110 27129 36289 -9312
16100 -19049 16215 27256 36494 -9242
16241 -19173 16300 27346 36557 -9393
16289 -19325 16405 27473 36762 -9323
16430 -19449 16490 27563 36825 -9474
16478 -19601 16595 27690 37030 -9404
7057 -12571 16022 30468 23919 -4221
-8448 -5863 15002 32754 19216 15207
28898 -15244 2125 1561 20305 -30732
26116 -18289 12771 16564 23256 -27276
11632 -18884 26748 25389 28961 -6389
8372 -24137 31721 19412 23146 -3657
11335 -26416 29716 15670 15708 -4571
14043 -30156 26423 13259 10161 -6804
14191 -30248 26477 13347 10261 -6938
14232 -30432 26613 13476 10429 -6885
14380 -30524 26667 13564 10529 -7019
14421 -30708 26803 13693 10697 -6966
14569 -30800 26857 13781 10797 -7100
14610 -30984 26993 13910 10965 -7047
14758 -31076 27047 13998 11065 -7181
14799 -31260 27183 14127 11233 -7128
14947 -31352 27237 14215 11333 -7262
14988 -31536 27373 14344 11501 -7209
15136 -31628 27427 14432 11601 -7343
15177 -31812 27563 14561 11769 -7290
15325 -31904 27617 14649 11869 -7424
15366 -32088 27753 14778 12037 -7371
15514 -32180 27807 14866 12137 -7505
15555 -32364 27943 14995 12305 -7452
15703 -32456 27997 15083 12405 -7586
15744 -32640 28133 15212 12573 -7533
15892 -32732 28187 15300 12673 -7667
15933 -32916 28323 15429 12841 -7614
6558 -26975 22177 17496 2659 -1490
-7176 -19064 16198 24356 1725 17321
24529 -21367 17353 -7934 7516 -29035
20755 -24386 22469 3747 2743 -27166
7154 -24256 27727 14033 2639 -2523
5910 -23665 27499 11229 376 1178
3257 -27354 28432 6337 -2578 1335
7401 -31721 24354 861 -1252 -5049
7510 -31821 24431 966 -1167 -5096
7590 -31997 24544 1078 -984 -5130
7699 -32097 24621 1183 -899 -5177
7779 -32273 24734 1295 -716 -5211
7888 -32373 24811 1400 -631 -5258
7968 -32549 24924 1512 -448 -5292
8077 -32649 25001 1617 -363 -5339
8157 -32825 25114 1729 -180 -5373
8266 -32925 25191 1834 -95 -5420
8346 -33101 25304 1946 88 -5454
8455 -33201 25381 2051 173 -5501
8535 -33377 25494 2163 356 -5535
8644 -33477 25571 2268 441 -5582
8724 -33653 25684 2380 624 -5616
8833 -33753 25761 2485 709 -5663
8913 -33929 25874 2597 892 -5697
9022 -34029 25951 2702 977 -5744
9102 -34205 26064 2814 1160 -5778
9211 -34305 26141 2919 1245 -5825
9291 -34481 26254 3031 1428 -5859
3472 -32844 18907 5803 -5115 2673
-8036 -28414 14299 14943 -825 17379
18252 -13737 16656 -13347 -3887 -24263
13777 -22189 20674 -4983 -10114 -17107
2119 -21214 24423 6902 -2141 5044
1705 -11705 21066 10052 -4553 4075
3080 -7358 16960 6327 -7229 3050
6876 -6640 13353 1595 -10535 -2014
6952 -6745 13467 1718 -10390 -1984
7065 -6916 13543 1812 -10267 -2095
7141 -7021 13657 1935 -10122 -2065
7254 -7192 13733 2029 -9999 -2176
7330 -7297 13847 2152 -9854 -2146
7443 -7468 13923 2246 -9731 -2257
7519 -7573 14037 2369 -9586 -2227
7632 -7744 14113 2463 -9463 -2338
7708 -7849 14227 2586 -9318 -2308
7821 -8020 14303 2680 -9195 -2419
7897 -8125 14417 2803 -9050 -2389
8010 -8296 14493 2897 -8927 -2500
8086 -8401 14607 3020 -8782 -2470
8199 -8572 14683 3114 -8659 -2581
8275 -8677 14797 3237 -8514 -2551
8388 -8848 14873 3331 -8391 -2662
8464 -8953 14987 3454 -8246 -2632
8577 -9124 15063 3548 -8123 -2743
8653 -9229 15177 3671 -7978 -2713
8766 -9400 15253 3765 -7855 -2824
4223 -11175 9513 7497 -11700 3661
-4448 -15683 4760 13457 -7857 12967
14383 7398 11653 -7541 -8769 -18338
14324 -3714 10715 1339 -13289 -10120
6655 -13754 6943 9427 -5251 4688
4494 -6630 7416 13351 483 4717
4174 2553 8282 11918 4445 3326
4814 7229 8880 10764 2513 -2521
4871 7103 8980 10865 2681 -2470
5003 6953 9070 10981 2781 -2602
5060 6827 9170 11082 2949 -2551
5192 6677 9260 11198 3049 -2683
5249 6551 9360 11299 3217 -2632
5381 6401 9450 11415 3317 -2764
5438 6275 9550 11516 3485 -2713
5570 6125 9640 11632 3585 -2845
5627 5999 9740 11733 3753 -2794
5759 5849 9830 11849 3853 -2926
5816 5723 9930 11950 4021 -2875
5948 5573 10020 12066 4121 -3007
6005 5447 10120 12167 4289 -2956
6137 5297 10210 12283 4389 -3088
6194 5171 10310 12384 4557 -3037
6326 5021 10400 12500 4657 -3169
6383 4895 10500 12601 4825 -3118
6515 4745 10590 12717 4925 -3250
6572 4619 10690 12818 5093 -3199
6704 4469 10780 12934 5193 -3331
149 5362 8120 15173 72 -473
-7503 3410 8238 18609 1315 8430
13830 8504 3944 800 590 -14865
8598 5469 3700 9824 235 -9875
-126 -3232 6047 19600 9742 2173
385 -7713 5852 17262 16330 2543
1340 -6802 3167 14204 20711 168
3767 -957 3760 13024 18869 -4047
3815 -1109 3865 13151 19074 -3977
3956 -1233 3950 13241 19137 -4128
4004 -1385 4055 13368 19342 -4058
4145 -1509 4140 13458 19405 -4209
4193 -1661 4245 13585 19610 -4139
4334 -1785 4330 13675 19673 -4290
4382 -1937 4435 13802 19878 -4220
4523 -2061 4520 13892 19941 -4371
4571 -2213 4625 14019 20146 -4301
4712 -2337 4710 14109 20209 -4452
4760 -2489 4815 14236 20414 -4382
4901 -2613 4900 14326 20477 -4533
4949 -2765 5005 14453 20682 -4463
5090 -2889 5090 14543 20745 -4614
5138 -3041 5195 14670 20950 -4544
5279 -3165 5280 14760 21013 -4695
5327 -3317 5385 14887 21218 -4625
5468 -3441 5470 14977 21281 -4776
5516 -3593 5575 15104 21486 -4706
5657 -3717 5660 15194 21549 -4857
1672 93 6988 16242 15420 -3215
-4808 3752 7520 15838 11892 4925
11244 -5273 -809 3944 12760 -13040
10671 -6123 1414 9992 17835 -12057
6083 -4421 6145 15755 22290 -4949
6224 -4545 6230 15845 22353 -5100
6272 -4697 6335 15972 22558 -5030
6413 -4821 6420 16062 22621 -5181
6461 -4973 6525 16189 22826 -5111
6602 -5097 6610 16279 22889 -5262
6650 -5249 6715 16406 23094 -5192
6791 -5373 6800 16496 23157 -5343
6839 -5525 6905 16623 23362 -5273
6980 -5649 6990 16713 23425 -5424
7028 -5801 7095 16840 23630 -5354
7169 -5925 7180 16930 23693 -5505
7217 -6077 7285 17057 23898 -5435
7358 -6201 7370 17147 23961 -5586
7406 -6353 7475 17274 24166 -5516
7547 -6477 7560 17364 24229 -5667
7595 -6629 7665 17491 24434 -5597
7736 -6753 7750 17581 24497 -5748
7784 -6905 7855 17708 24702 -5678
7925 -7029 7940 17798 24765 -5829
7973 -7181 8045 17925 24970 -5759
8114 -7305 8130 18015 25033 -5910
8162 -7457 8235 18142 25238 -5840
8303 -7581 8320 18232 25301 -5991
2960 -2987 9186 19714 17492 -3425
-5690 1414 9340 19954 13670 7417
15542 -7709 -95 3370 14608 -17338
14773 -9553 2940 11322 20271 -15767
8729 -8285 8805 18793 26042 -6083
8870 -8409 8890 18883 26105 -6234
8918 -8561 8995 19010 26310 -6164
9059 -8685 9080 19100 26373 -6315
9107 -8837 9185 19227 26578 -6245
9248 -8961 9270 19317 26641 -6396
9296 -9113 9375 19444 26846 -6326
9437 -9237 9460 19534 26909 -6477
9485 -9389 9565 19661 27114 -6407
9626 -9513 9650 19751 27177 -6558
9674 -9665 9755 19878 27382 -6488
9815 -9789 9840 19968 27445 -6639
9863 -9941 9945 20095 27650 -6569
10004 -10065 10030 20185 27713 -6720
10052 -10217 10135 20312 27918 -6650
10193 -10341 10220 20402 27981 -6801
10241 -10493 10325 20529 28186 -6731
10382 -10617 10410 20619 28249 -6882
10430 -10769 10515 20746 28454 -6812
10571 -10893 10600 20836 28517 -6963
10619 -11045 10705 20963 28722 -6893
10760 -11169 10790 21053 28785 -7044
10808 -11321 10895 21180 28990 -6974
10949 -11445 10980 21270 29053 -7125
4248 -6067 11384 23186 19564 -3635
-6572 -924 11160 24070 15448 9909
19840 -10145 619 2796 16456 -21636
18875 -12983 4466 12652 22707 -19477
11375 -12149 11465 21831 29794 -7217
11516 -12273 11550 21921 29857 -7368
11564 -12425 11655 22048 30062 -7298
11705 -12549 11740 22138 30125 -7449
11753 -12701 11845 22265 30330 -7379
11894 -12825 11930 22355 30393 -7530
11942 -12977 12035 22482 30598 -7460
12083 -13101 12120 22572 30661 -7611
12131 -13253 12225 22699 30866 -7541
12272 -13377 12310 22789 30929 -7692
12320 -13529 12415 22916 31134 -7622
12461 -13653 12500 23006 31197 -7773
12509 -13805 12605 23133 31402 -7703
12650 -13929 12690 23223 31465 -7854
12698 -14081 12795 23350 31670 -7784
12839 -14205 12880 23440 31733 -7935
12887 -14357 12985 23567 31938 -7865
13028 -14481 13070 23657 32001 -8016
13076 -14633 13175 23784 32206 -7946
13217 -14757 13260 23874 32269 -8097
13265 -14909 13365 24001 32474 -8027
13406 -15033 13450 24091 32537 -8178
13454 -15185 13555 24218 32742 -8108
13595 -15309 13640 24308 32805 -8259
5536 -9147 13582 26658 21636 -3845
-7454 -3262 12980 28186 17226 12401
24138 -12581 1333 2222 18304 -25934
22977 -16413 5992 13982 25143 -23187
14021 -16013 14125 24869 33546 -8351
14162 -16137 14210 24959 33609 -8502
14210 -16289 14315 25086 33814 -8432
14351 -16413 14400 25176 33877 -8583
14399 -16565 14505 25303 34082 -8513
14540 -16689 14590 25393 34145 -8664
14588 -16841 14695 25520 34350 -8594
14729 -16965 14780 25610 34413 -8745
14777 -17117 14885 25737 34618 -8675
14918 -17241 14970 25827 34681 -8826
14966 -17393 15075 25954 34886 -8756
15107 -17517 15160 26044 34949 -8907
15155 -17669 15265 26171 35154 -8837
15296 -17793 15350 26261 35217 -8988
15344 -17945 15455 26388 35422 -8918
15485 -18069 15540 26478 35485 -9069
15533 -18221 15645 26605 35690 -8999
15674 -18345 15730 26695 35753 -9150
15722 -18497 15835 26822 35958 -9080
15863 -18621 15920 26912 36021 -9231
15911 -18773 16025 27039 36226 -9161
16052 -18897 16110 27129 36289 -9312
16100 -19049 16215 27256 36494 -9242
16241 -19173 16300 27346 36557 -9393
6824 -12227 15780 30130 23708 -4055
-8336 -5600 14800 32302 19004 14893
28436 -15017 2047 1648 20152 -30232
27079 -19843 7518 15312 27579 -26897
16667 -19877 16785 27907 37298 -9485
16808 -20001 16870 27997 37361 -9636
15448 -18233 22095 29276 32958 -9566
11632 -18884 26748 25389 28961 -6389
8372 -24137 31721 19412 23146 -3657
11335 -26416 29716 15670 15708 -4571
14043 -30156 26423 13259 10161 -6804
14191 -30248 26477 13347 10261 -6938
14232 -30432 26613 13476 10429 -6885
14380 -30524 26667 13564 10529 -7019
14421 -30708 26803 13693 10697 -6966
14569 -30800 26857 13781 10797 -7100
14610 -30984 26993 13910 10965 -7047
14758 -31076 27047 13998 11065 -7181
14799 -31260 27183 14127 11233 -7128
14947 -31352 27237 14215 11333 -7262
14988 -31536 27373 14344 11501 -7209
15136 -31628 27427 14432 11601 -7343
15177 -31812 27563 14561 11769 -7290
15325 -31904 27617 14649 11869 -7424
15366 -32088 27753 14778 12037 -7371
15514 -32180 27807 14866 12137 -7505
15555 -32364 27943 14995 12305 -7452
15703 -32456 27997 15083 12405 -7586
6329 -26678 21926 17151 2447 -1341
-7037 -18750 15969 23942 1546 16998
24061 -21161 17317 -7855 7312 -28540
25330 -29136 21510 3881 7826 -25380
16122 -33192 28513 15646 13109 -7695
16270 -33284 28567 15734 13209 -7829
11319 -28348 29471 15607 8001 -9184
7154 -24256 27727 14033 2639 -2523
5910 -23665 27499 11229 376 1178
3257 -27354 28432 6337 -2578 1335
7401 -31721 24354 861 -1252 -5049
7510 -31821 24431 966 -1167 -5096
7590 -31997 24544 1078 -984 -5130
7699 -32097 24621 1183 -899 -5177
7779 -32273 24734 1295 -716 -5211
7888 -32373 24811 1400 -631 -5258
7968 -32549 24924 1512 -448 -5292
8077 -32649 25001 1617 -363 -5339
8157 -32825 25114 1729 -180 -5373
8266 -32925 25191 1834 -95 -5420
8346 -33101 25304 1946 88 -5454
8455 -33201 25381 2051 173 -5501
8535 -33377 25494 2163 356 -5535
8644 -33477 25571 2268 441 -5582
8724 -33653 25684 2380 624 -5616
8833 -33753 25761 2485 709 -5663
8913 -33929 25874 2597 892 -5697
9022 -34029 25951 2702 977 -5744
3321 -32579 18627 5443 -5270 2746
-7941 -28101 14113 14557 -1018 17079
17769 -13518 16637 -13280 -4109 -23803
16041 -26084 22521 -4620 -6061 -19764
9480 -34757 26444 3248 1696 -5940
9589 -34857 26521 3353 1781 -5987
6981 -30809 24586 2953 -2388 -2949
2119 -21214 24423 6902 -2141 5044
1705 -11705 21066 10052 -4553 4075
3080 -7358 16960 6327 -7229 3050
6876 -6640 13353 1595 -10535 -2014
6952 -6745 13467 1718 -10390 -1984
7065 -6916 13543 1812 -10267 -2095
7141 -7021 13657 1935 -10122 -2065
7254 -7192 13733 2029 -9999 -2176
7330 -7297 13847 2152 -9854 -2146
7443 -7468 13923 2246 -9731 -2257
7519 -7573 14037 2369 -9586 -2227
7632 -7744 14113 2463 -9463 -2338
7708 -7849 14227 2586 -9318 -2308
7821 -8020 14303 2680 -9195 -2419
7897 -8125 14417 2803 -9050 -2389
8010 -8296 14493 2897 -8927 -2500
8086 -8401 14607 3020 -8782 -2470
8199 -8572 14683 3114 -8659 -2581
8275 -8677 14797 3237 -8514 -2551
8388 -8848 14873 3331 -8391 -2662
8464 -8953 14987 3454 -8246 -2632
4126 -10938 9212 7123 -11881 3633
-4368 -15418 4597 13055 -8025 12705
13914 7650 11593 -7484 -9046 -17924
13256 -1463 14106 -750 -13171 -14275
8955 -9676 15443 3982 -7587 -2905
9031 -9781 15557 4105 -7442 -2875
9784 -11872 12049 6119 -7703 1622
6655 -13754 6943 9427 -5251 4688
4494 -6630 7416 13351 483 4717
4174 2553 8282 11918 4445 3326
4814 7229 8880 10764 2513 -2521
4871 7103 8980 10865 2681 -2470
5003 6953 9070 10981 2781 -2602
5060 6827 9170 11082 2949 -2551
5192 6677 9260 11198 3049 -2683
5249 6551 9360 11299 3217 -2632
5381 6401 9450 11415 3317 -2764
5438 6275 9550 11516 3485 -2713
5570 6125 9640 11632 3585 -2845
5627 5999 9740 11733 3753 -2794
5759 5849 9830 11849 3853 -2926
5816 5723 9930 11950 4021 -2875
5948 5573 10020 12066 4121 -3007
6005 5447 10120 12167 4289 -2956
6137 5297 10210 12283 4389 -3088
6194 5171 10310 12384 4557 -3037
6326 5021 10400 12500 4657 -3169
6383 4895 10500 12601 4825 -3118
66 5635 7861 14806 -129 -558
-7412 3653 8074 18175 1149 8201
13373 8812 3900 877 336 -14438
12123 7993 7977 7959 616 -11622
6893 4193 10970 13151 5461 -3412
6950 4067 11070 13252 5629 -3361
3114 1741 6680 15032 5089 -1317
-126 -3232 6047 19600 9742 2173
385 -7713 5852 17262 16330 2543
1340 -6802 3167 14204 20711 168
3767 -957 3760 13024 18869 -4047
3815 -1109 3865 13151 19074 -3977
3956 -1233 3950 13241 19137 -4128
4004 -1385 4055 13368 19342 -4058
4145 -1509 4140 13458 19405 -4209
4193 -1661 4245 13585 19610 -4139
4334 -1785 4330 13675 19673 -4290
4382 -1937 4435 13802 19878 -4220
4523 -2061 4520 13892 19941 -4371
4571 -2213 4625 14019 20146 -4301
4712 -2337 4710 14109 20209 -4452
4760 -2489 4815 14236 20414 -4382
4901 -2613 4900 14326 20477 -4533
4949 -2765 5005 14453 20682 -4463
5090 -2889 5090 14543 20745 -4614
5138 -3041 5195 14670 20950 -4544
5279 -3165 5280 14760 21013 -4695
5327 -3317 5385 14887 21218 -4625
1629 409 6759 15836 15187 -3336
-4731 3990 7332 15408 11723 4705
10785 -4978 -884 3980 12517 -12619
10237 -5754 1220 9807 17598 -11641
5846 -3993 5850 15411 21817 -4938
5894 -4145 5955 15538 22022 -4868
6035 -4269 6040 15628 22085 -5019
6083 -4421 6145 15755 22290 -4949
6224 -4545 6230 15845 22353 -5100
6272 -4697 6335 15972 22558 -5030
6413 -4821 6420 16062 22621 -5181
6461 -4973 6525 16189 22826 -5111
6602 -5097 6610 16279 22889 -5262
6650 -5249 6715 16406 23094 -5192
6791 -5373 6800 16496 23157 -5343
6839 -5525 6905 16623 23362 -5273
6980 -5649 6990 16713 23425 -5424
7028 -5801 7095 16840 23630 -5354
7169 -5925 7180 16930 23693 -5505
7217 -6077 7285 17057 23898 -5435
7358 -6201 7370 17147 23961 -5586
7406 -6353 7475 17274 24166 -5516
7547 -6477 7560 17364 24229 -5667
7595 -6629 7665 17491 24434 -5597
7736 -6753 7750 17581 24497 -5748
7784 -6905 7855 17708 24702 -5678
7925 -7029 7940 17798 24765 -5829
7973 -7181 8045 17925 24970 -5759
2917 -2671 8957 19308 17259 -3546
-5613 1652 9152 19524 13501 7197
15083 -7414 -170 3406 14365 -16917
14339 -9184 2746 11137 20034 -15351
8492 -7857 8510 18449 25569 -6072
8540 -8009 8615 18576 25774 -6002
8681 -8133 8700 18666 25837 -6153
8729 -8285 8805 18793 26042 -6083
8870 -8409 8890 18883 26105 -6234
8918 -8561 8995 19010 26310 -6164
9059 -8685 9080 19100 26373 -6315
9107 -8837 9185 19227 26578 -6245
9248 -8961 9270 19317 26641 -6396
9296 -9113 9375 19444 26846 -6326
9437 -9237 9460 19534 26909 -6477
9485 -9389 9565 19661 27114 -6407
9626 -9513 9650 19751 27177 -6558
9674 -9665 9755 19878 27382 -6488
9815 -9789 9840 19968 27445 -6639
9863 -9941 9945 20095 27650 -6569
10004 -10065 10030 20185 27713 -6720
10052 -10217 10135 20312 27918 -6650
10193 -10341 10220 20402 27981 -6801
10241 -10493 10325 20529 28186 -6731
10382 -10617 10410 20619 28249 -6882
10430 -10769 10515 20746 28454 -6812
10571 -10893 10600 20836 28517 -6963
10619 -11045 10705 20963 28722 -6893
4205 -5751 11155 22780 19331 -3756
-6495 -686 10972 23640 15279 9689
19381 -9850 544 2832 16213 -21215
18441 -12614 4272 12467 22470 -19061
11138 -11721 11170 21487 29321 -7206
11186 -11873 11275 21614 29526 -7136
11327 -11997 11360 21704 29589 -7287
11375 -12149 11465 21831 29794 -7217
11516 -12273 11550 21921 29857 -7368
11564 -12425 11655 22048 30062 -7298
11705 -12549 11740 22138 30125 -7449
11753 -12701 11845 22265 30330 -7379
11894 -12825 11930 22355 30393 -7530
11942 -12977 12035 22482 30598 -7460
12083 -13101 12120 22572 30661 -7611
12131 -13253 12225 22699 30866 -7541
12272 -13377 12310 22789 30929 -7692
12320 -13529 12415 22916 31134 -7622
12461 -13653 12500 23006 31197 -7773
12509 -13805 12605 23133 31402 -7703
12650 -13929 12690 23223 31465 -7854
12698 -14081 12795 23350 31670 -7784
12839 -14205 12880 23440 31733 -7935
12887 -14357 12985 23567 31938 -7865
13028 -14481 13070 23657 32001 -8016
13076 -14633 13175 23784 32206 -7946
13217 -14757 13260 23874 32269 -8097
13265 -14909 13365 24001 32474 -8027
5493 -8831 13353 26252 21403 -3966
-7377 -3024 12792 27756 17057 12181
23679 -12286 1258 2258 18061 -25513
22543 -16044 5798 13797 24906 -22771
13784 -15585 13830 24525 33073 -8340
13832 -15737 13935 24652 33278 -8270
13973 -15861 14020 24742 33341 -8421
14021 -16013 14125 24869 33546 -8351
14162 -16137 14210 24959 33609 -8502
14210 -16289 14315 25086 33814 -8432
14351 -16413 14400 25176 33877 -8583
14399 -16565 14505 25303 34082 -8513
14540 -16689 14590 25393 34145 -8664
14588 -16841 14695 25520 34350 -8594
14729 -16965 14780 25610 34413 -8745
14777 -17117 14885 25737 34618 -8675
14918 -17241 14970 25827 34681 -8826
14966 -17393 15075 25954 34886 -8756
15107 -17517 15160 26044 34949 -8907
15155 -17669 15265 26171 35154 -8837
15296 -17793 15350 26261 35217 -8988
15344 -17945 15455 26388 35422 -8918
15485 -18069 15540 26478 35485 -9069
15533 -18221 15645 26605 35690 -8999
15674 -18345 15730 26695 35753 -9150
15722 -18497 15835 26822 35958 -9080
15863 -18621 15920 26912 36021 -9231
15911 -18773 16025 27039 36226 -9161
6781 -11911 15551 29724 23475 -4176
-8259 -5362 14612 31872 18835 14673
27977 -14722 1972 1684 19909 -29811
26645 -19474 7324 15127 27342 -26481
16430 -19449 16490 27563 36825 -9474
16478 -19601 16595 27690 37030 -9404
16619 -19725 16680 27780 37093 -9555
16667 -19877 16785 27907 37298 -9485
16808 -20001 16870 27997 37361 -9636
15448 -18233 22095 29276 32958 -9566
11632 -18884 26748 25389 28961 -6389
8372 -24137 31721 19412 23146 -3657
11335 -26416 29716 15670 15708 -4571
14043 -30156 26423 13259 10161 -6804
14191 -30248 26477 13347 10261 -6938
14232 -30432 26613 13476 10429 -6885
14380 -30524 26667 13564 10529 -7019
14421 -30708 26803 13693 10697 -6966
14569 -30800 26857 13781 10797 -7100
14610 -30984 26993 13910 10965 -7047
14758 -31076 27047 13998 11065 -7181
14799 -31260 27183 14127 11233 -7128
14947 -31352 27237 14215 11333 -7262
14988 -31536 27373 14344 11501 -7209
15136 -31628 27427 14432 11601 -7343
15177 -31812 27563 14561 11769 -7290
15325 -31904 27617 14649 11869 -7424
15366 -32088 27753 14778 12037 -7371
6282 -26315 21706 16752 2215 -1445
-6987 -18563 15808 23474 1344 16787
22917 -21120 18380 -8502 5934 -27644
24366 -29220 22430 2696 5789 -24527
15563 -33486 29051 14039 10332 -7390
15595 -33691 29207 14107 10409 -7317
15727 -33836 29312 14136 10381 -7448
15759 -34041 29468 14204 10458 -7375
15891 -34186 29573 14233 10430 -7506
10931 -29271 30497 14045 5131 -8841
6750 -25232 28804 12412 -359 -2177
5497 -24662 28596 9547 -2713 1544
2828 -28404 29580 4596 -5795 1704
6963 -32792 25522 -941 -4560 -4660
7056 -32945 25650 -895 -4603 -4704
7127 -33142 25783 -844 -4511 -4718
7220 -33295 25911 -798 -4554 -4762
7291 -33492 26044 -747 -4462 -4776
7384 -33645 26172 -701 -4505 -4820
7455 -33842 26305 -650 -4413 -4834
7548 -33995 26433 -604 -4456 -4878
7619 -34192 26566 -553 -4364 -4892
7712 -34345 26694 -507 -4407 -4936
7783 -34542 26827 -456 -4315 -4950
7876 -34695 26955 -410 -4358 -4994
7947 -34892 27088 -359 -4266 -5008
8040 -35045 27216 -313 -4309 -5052
8111 -35242 27349 -262 -4217 -5066
2831 -34186 19192 2142 -9664 3271
-7477 -29840 13821 11827 -4634 16794
14819 -13066 19175 -15277 -8161 -21515
13317 -26188 24775 -7963 -11893 -17602
7680 -35796 27624 -1272 -5498 -4936
7695 -35988 27750 -1273 -5473 -4895
7771 -36128 27848 -1296 -5568 -4971
7786 -36320 27974 -1297 -5543 -4930
7862 -36460 28072 -1320 -5638 -5006
5189 -32428 26150 -1833 -9965 -1893
294 -22873 26008 1988 -9898 6071
-185 -13380 22664 5025 -12468 5177
1157 -9073 18579 1172 -15324 4123
4888 -8371 14985 -3673 -18788 -866
4931 -8516 15120 -3678 -18823 -865
4979 -8703 15209 -3697 -18858 -901
5022 -8848 15344 -3702 -18893 -900
5070 -9035 15433 -3721 -18928 -936
5113 -9180 15568 -3726 -18963 -935
5161 -9367 15657 -3745 -18998 -971
5204 -9512 15792 -3750 -19033 -970
5252 -9699 15881 -3769 -19068 -1006
5295 -9844 16016 -3774 -19103 -1005
5343 -10031 16105 -3793 -19138 -1041
5386 -10176 16240 -3798 -19173 -1040
5434 -10363 16329 -3817 -19208 -1076
5477 -10508 16464 -3822 -19243 -1075
5525 -10695 16553 -3841 -19278 -1111
2594 -14208 9269 -624 -20567 5411
-3683 -19531 3578 6575 -14571 11953
