# Description: After Bias Addition
# Shape: 10x10x16 (Height x Width x Channels)
# Layout: Row-major pixel order. Columns are Channels 0 to 15
25384 17779 7862 11733 -1348 -9777 -32004 -8982 -10542 -45105 9336 6328 4572 -7234 -18375 -3523
27650 18680 2512 6694 -2221 -11268 -28919 -10619 -11982 -42581 9138 7065 10099 -3863 -13073 -976
28227 21149 2861 5938 -1713 -12414 -28491 -9849 -12412 -42712 8910 7335 10138 -3132 -11841 -1402
28288 22141 3104 6075 -1273 -12494 -28894 -9346 -12875 -43302 8966 7461 10040 -2841 -11332 -1647
28371 22179 3116 5964 -1248 -12491 -29236 -9463 -13090 -43751 9008 7556 10147 -2796 -11192 -1656
28441 22201 3130 5833 -1160 -12546 -29494 -9556 -13212 -44230 9084 7614 10295 -2707 -11037 -1645
28403 22282 3215 5673 -995 -12648 -29678 -9733 -13265 -44687 9131 7628 10485 -2635 -10941 -1578
28371 22322 3357 5621 -874 -12646 -30008 -9743 -13362 -45208 9115 7655 10573 -2587 -10776 -1532
28359 22272 3367 5523 -846 -12662 -30353 -9899 -13523 -45708 9110 7753 10696 -2459 -10666 -1505
26030 19953 3376 3547 7334 -12724 -20576 -8746 -9066 -50826 6901 9242 10067 -1901 -11826 2225
18854 10432 6043 -12821 -845 -14771 -32215 -16070 -9505 -46028 24339 -8862 12055 6962 26496 2952
19080 8687 721 -16164 1092 -13807 -25980 -19556 -12594 -38698 23039 -6007 17557 14530 30351 8929
19328 11707 639 -17652 2388 -13938 -26343 -18690 -13195 -38550 23235 -4439 18367 14869 30605 10069
19384 12979 858 -17523 2826 -13999 -27563 -18075 -13455 -39648 23371 -3591 18098 14477 30603 9418
19395 12813 904 -17477 2907 -13942 -27883 -18166 -13734 -40118 23175 -3527 18061 14493 30587 9344
19380 12624 892 -17445 3000 -13903 -28051 -18397 -13899 -40435 22975 -3434 18100 14526 30580 9318
19373 12528 1038 -17468 3171 -13902 -28224 -18568 -14025 -40705 22787 -3291 18119 14700 30576 9303
19353 12394 1152 -17384 3317 -13874 -28616 -18607 -14167 -41263 22587 -3162 18058 14744 30509 9268
19340 12175 1194 -17235 3375 -13779 -28863 -18642 -14392 -41756 22294 -3001 18013 14758 30482 9172
17831 9518 2171 -16388 9033 -13948 -18619 -19012 -9391 -47913 19048 -1030 17435 14340 27450 13043
-13903 -5973 4678 -13610 1369 -9882 -24554 -14264 -15929 -38391 -18507 -5726 2801 16944 22534 -1756
-14179 -8951 -575 -16083 6434 -7956 -18504 -18236 -17183 -35819 -19279 1704 2788 16282 20745 -8
-15688 -8124 -1112 -15933 7123 -7086 -18920 -18580 -17074 -37155 -19451 3671 3558 16119 19246 2264
-15906 -7745 -706 -15508 6833 -6970 -20321 -18191 -17339 -38211 -19156 4085 3690 16106 18774 2222
-15949 -7822 -575 -15328 6964 -6838 -20623 -18235 -17480 -38490 -19274 4272 3685 16058 18690 2059
-15923 -7884 -410 -15159 7123 -6690 -20842 -18435 -17585 -38731 -19350 4531 3667 16041 18563 1863
-15958 -7865 -231 -14976 7378 -6588 -21053 -18675 -17649 -39159 -19379 4692 3723 16017 18519 1836
-15950 -7903 -58 -14779 7581 -6534 -21317 -18739 -17763 -39505 -19458 4797 3796 15917 18447 1738
-15857 -7981 17 -14616 7766 -6391 -21612 -18774 -17898 -39784 -19505 5016 3803 15872 18413 1600
-15307 -10451 1235 -11529 10829 -6863 -12408 -18570 -13292 -44195 -19733 8546 2885 16341 16619 3943
-25945 -5880 7503 20611 4827 3769 -23289 -1717 -17080 -26994 -25455 4862 3722 -669 -7966 -8276
-24612 -9140 2130 17328 5279 2125 -19238 -5720 -16091 -26687 -23101 10222 6439 -2112 -8409 -9861
-25311 -10873 1241 17275 6846 2752 -19694 -7081 -14000 -28530 -22044 11772 6066 -2385 -9583 -8893
-25201 -11130 1829 18118 7149 3408 -20789 -6741 -13693 -29765 -22023 11451 6205 -2113 -9543 -8568
-25042 -11072 2003 18168 7253 3478 -21109 -6868 -13767 -30019 -22078 11591 6228 -2237 -9598 -8620
-24864 -10995 2141 18233 7273 3397 -21415 -7060 -13917 -30416 -22110 11639 6205 -2329 -9599 -8684
-24690 -10887 2270 18278 7394 3270 -21626 -7388 -13913 -30747 -22068 11722 6278 -2377 -9598 -8677
-24494 -10739 2420 18283 7507 3246 -21969 -7599 -14004 -31026 -22079 11786 6345 -2433 -9605 -8603
-24250 -10634 2506 18292 7591 3259 -22326 -7798 -14132 -31451 -22107 11928 6400 -2501 -9666 -8578
-23108 -12863 3034 19631 10828 2290 -13079 -6313 -10955 -33885 -20768 16054 5370 -1551 -9371 -7803
15522 -3375 9179 19709 -3813 2239 -26928 -3817 -15501 -25918 -9852 10240 -133 -9555 -17078 -5832
19473 -2087 2351 16742 -5676 -1209 -24944 -6107 -13468 -25473 -6723 14107 3475 -6298 -17421 -5728
20524 -303 375 13858 -3022 -2461 -23213 -5781 -9891 -26946 -4053 12224 3774 -6122 -18444 -5996
22957 3360 948 12021 -2225 -4391 -22468 -4645 -9520 -27805 -3081 9949 4527 -6541 -16843 -5971
23679 5678 1072 12053 -2770 -5742 -22010 -3968 -10072 -28421 -2959 8795 4679 -6841 -15521 -6634
23786 5781 1243 12007 -2801 -5888 -22323 -4152 -10166 -28784 -2955 8741 4799 -6793 -15348 -6654
23833 5890 1369 11871 -2693 -6001 -22519 -4448 -10206 -29085 -2926 8801 4908 -6639 -15230 -6652
23897 5937 1583 11760 -2637 -5972 -22877 -4684 -10296 -29620 -2853 8852 4974 -6546 -15136 -6609
23959 5965 1715 11639 -2625 -6063 -23255 -4971 -10381 -30250 -2791 8830 5082 -6482 -14986 -6560
22426 5033 1778 11877 3463 -6481 -14132 -2046 -6532 -34164 -3407 12335 4193 -6037 -15692 -4526
24766 18091 8413 3596 -4 -9507 -33200 -7037 -10227 -48604 13663 5249 3635 -5722 -9166 -6469
26977 13407 1964 -1004 -119 -11941 -32721 -10972 -11574 -48273 18559 5116 7520 -2760 310 -5204
25372 13539 333 -4454 -1197 -12408 -27989 -13620 -10671 -44667 19717 2475 10444 -261 5013 -28
25140 16848 1436 -6952 -1297 -12981 -25501 -14437 -11042 -40487 19062 846 13383 3205 8109 4143
25255 19209 1580 -6547 -1194 -13104 -26250 -13882 -11946 -39276 19551 325 13847 4583 8901 3993
25257 19120 1659 -6523 -1026 -13026 -26528 -13909 -12160 -39647 19305 590 13873 4678 8841 3974
25219 18983 1800 -6431 -791 -12907 -26730 -13962 -12269 -40159 19067 795 13921 4715 8744 3921
25118 18795 1899 -6401 -597 -12913 -27097 -13992 -12377 -40796 18831 863 13899 4727 8698 3896
25053 18564 1984 -6297 -499 -12951 -27472 -14074 -12484 -41290 18592 1015 13915 4801 8745 3840
23403 16449 2496 -7369 6555 -12510 -17118 -12845 -7462 -46463 17048 2925 12937 5129 7296 7286
11356 7829 4878 -18746 5091 -12832 -29708 -10277 -10251 -51380 12082 -9804 12853 11921 28490 7041
10839 2405 538 -21447 2484 -15570 -27782 -11938 -12194 -47989 8289 -8317 12969 15148 32573 3157
6333 -2093 -1430 -21305 817 -12930 -22849 -16062 -13172 -40725 4278 -5935 11202 17574 31936 3811
2231 -1365 -702 -21129 2335 -10793 -19720 -17285 -13888 -36458 1544 -2564 9721 18838 28894 7054
1003 574 -237 -19506 2675 -9367 -20795 -16974 -14668 -36732 1158 -1242 8389 18054 26408 7175
1021 525 -74 -19340 2945 -9123 -20955 -17102 -14821 -37052 1118 -997 8470 18019 26350 7092
1067 527 134 -19201 3260 -9058 -21192 -17190 -14868 -37574 1135 -883 8499 17905 26261 6966
1098 484 334 -19012 3492 -9037 -21620 -17267 -14895 -38052 1111 -781 8545 17846 26208 6820
1147 434 469 -18836 3631 -8938 -21947 -17347 -15040 -38367 1062 -557 8615 17779 26203 6658
562 -2208 1800 -17060 8175 -8771 -11800 -17558 -9761 -44545 -783 1396 8341 17321 24236 9170
-21737 -7711 5272 -6194 9019 -7211 -23655 -11297 -13114 -46163 -23699 -857 3140 12588 12537 2783
-21983 -8922 3867 -1496 6221 -7073 -23663 -6057 -16709 -38671 -24741 3670 4842 14415 10499 -779
-23227 -9193 1819 2112 6352 -2585 -18597 -6758 -17740 -32755 -25121 7050 3150 11819 6602 -4912
-25061 -10879 936 2565 8640 -448 -16376 -9210 -15296 -31735 -23593 9029 2837 7926 3989 -5074
-25748 -11282 1494 3804 8160 1274 -17337 -9959 -14983 -33022 -23773 9242 2934 5659 2285 -5117
-25620 -11273 1644 3725 8394 1314 -17577 -10231 -15000 -33337 -23826 9339 2918 5626 2386 -5063
-25513 -11266 1902 3726 8561 1160 -17936 -10520 -14949 -33807 -23852 9403 2936 5629 2493 -4985
-25365 -11257 2081 3735 8591 1036 -18346 -10773 -15061 -34310 -23924 9439 2944 5626 2582 -4940
-25175 -11269 2155 3758 8629 1037 -18663 -10964 -15275 -34611 -24016 9548 3003 5603 2652 -4934
-24490 -13546 2804 6903 11329 -603 -9863 -9957 -10434 -38562 -23879 13068 2711 6647 1719 -3268
-17703 -9581 7698 21337 7711 3211 -23018 -7812 -14039 -25347 -18795 10408 2068 -1567 -9543 -7078
-9806 -11302 7505 21147 3615 5790 -24113 -4484 -18195 -21201 -18918 13382 4105 -2704 -10481 -5958
-5093 -9445 5410 21816 1865 5837 -21187 -2226 -18177 -20287 -18532 13784 4411 -7451 -14050 -7750
-3938 -9742 2565 21144 2958 3456 -19930 -3483 -13495 -22805 -16478 13733 3031 -8753 -14991 -8874
-2911 -10262 2776 20840 3023 2721 -20895 -3104 -11105 -25287 -16145 12200 2513 -8598 -13646 -9465
-3026 -10020 3044 20825 2910 2456 -20879 -3453 -11151 -25419 -16169 12056 2785 -8244 -13202 -9327
-3156 -9777 3269 20922 2832 2382 -21092 -3678 -11236 -25923 -16230 11910 2906 -8067 -13095 -9177
-3095 -9584 3415 20980 2812 2277 -21519 -3959 -11378 -26352 -16229 12001 3068 -7989 -13088 -9149
-2966 -9419 3490 20937 2832 2250 -21819 -4209 -11574 -26715 -16276 12147 3220 -7886 -13083 -9129
-2389 -11255 3673 21775 7624 1181 -12469 -1584 -7498 -28884 -14787 15842 2343 -6605 -13238 -7661
22908 13549 6147 14309 -730 -5077 -24153 -4135 -11712 -31943 713 9072 2774 -9077 -19772 -8067
28163 12459 4402 12900 -1502 -4975 -26355 -7646 -15387 -31956 3198 12597 5665 -7455 -18491 -6801
30544 13963 3906 11860 -2910 -8570 -29512 -10155 -13649 -36034 6971 11147 4971 -7471 -18545 -6640
30691 15312 1695 10112 -3630 -11190 -29102 -12738 -12364 -37320 9497 8163 7427 -7018 -18199 -4757
31524 17731 578 7692 -4365 -12636 -26789 -11643 -11788 -37256 8398 4985 9591 -5665 -15278 -2590
32083 20116 930 6916 -3809 -13654 -26433 -10926 -12213 -37413 8123 5472 9686 -4738 -14108 -2776
32196 21334 1069 7008 -3313 -13781 -27003 -10370 -12753 -38033 8217 5750 9640 -4365 -13504 -3083
32336 21458 1036 6889 -3299 -13853 -27368 -10514 -12932 -38469 8295 5838 9843 -4296 -13384 -3041
32435 21558 994 6745 -3208 -13950 -27564 -10667 -13115 -38934 8366 5910 10063 -4228 -13351 -3001
30499 19632 922 5020 4496 -13869 -17636 -8174 -8907 -43391 6519 7455 8941 -4270 -14134 -146
